1.82510905e-27
1.82510905e-27
1.82510905e-27
1.82510905e-27
1.82510905e-27
1.82510905e-27
1.82510905e-27
1.82510905e-27
1.82510905e-27
1.82510905e-27
1.82510905e-27
1.82510905e-27
1.82510905e-27
1.82510905e-27
1.82510905e-27
1.82510905e-27
1.82510905e-27
1.82510905e-27
1.82510905e-27
1.82510905e-27
1.82510905e-27
1.82510905e-27
1.82510905e-27
1.82510905e-27
1.82510905e-27
1.82510905e-27
1.82510905e-27
1.82510905e-27
1.82510905e-27
1.82510905e-27
1.82510905e-27
1.82510905e-27
1.82510905e-27
1.82510905e-27
1.82510905e-27
1.82510905e-27
1.82510905e-27
1.82510905e-27
1.82510905e-27
1.82510905e-27
1.82510905e-27
1.82510905e-27
1.82510905e-27
1.82510905e-27
1.82510905e-27
1.82510905e-27
1.82510905e-27
1.82510905e-27
1.82510905e-27
1.82510905e-27
1.82510905e-27
1.82510905e-27
1.82510905e-27
1.82510905e-27
1.82510905e-27
1.82510905e-27
1.82510905e-27
1.82510905e-27
1.82510905e-27
1.82510905e-27
1.82510905e-27
1.82510905e-27
1.82510905e-27
1.82510905e-27
1.82510905e-27
1.82510905e-27
3.92664950e-14
7.55798964e-14
2.23742190e-14
3.66054762e-13
1.38295609e-14
1.82510905e-27
-7.95733176e-18
-1.87827987e-17
-4.44190482e-18
1.82510905e-27
1.82510905e-27
1.82510905e-27
1.82510905e-27
1.82510905e-27
1.82510905e-27
1.82510905e-27
1.82510905e-27
1.82510905e-27
1.82510905e-27
1.82510905e-27
1.82510905e-27
1.82510905e-27
1.82510905e-27
1.82510905e-27
1.82510905e-27
1.82510905e-27
-1.40208813e-18
-1.01587205e-17
-9.01629557e-18
-1.46091046e-19
3.75137428e-14
5.87549317e-13
1.64314987e-13
-6.40149305e-15
-3.17023530e-14
-1.02828660e-14
-5.34958626e-15
-7.92313391e-16
1.82510905e-27
1.82510905e-27
1.82510905e-27
1.82510905e-27
1.82510905e-27
1.82510905e-27
1.82510905e-27
1.82510905e-27
1.82510905e-27
1.82510905e-27
1.82510905e-27
1.82510905e-27
1.82510905e-27
1.82510905e-27
1.82510905e-27
-2.07253135e-15
-6.18705395e-15
-8.18316266e-16
2.41762794e-14
3.80502622e-14
9.02296786e-14
2.24145882e-03
9.30938202e-04
4.70585374e-03
1.59059636e-13
5.37935209e-13
2.15206504e-03
1.77241912e-03
2.17733750e-14
4.06371038e-14
3.08966501e-14
9.58472451e-15
1.82510905e-27
1.82510905e-27
1.82510905e-27
1.82510905e-27
1.82510905e-27
1.82510905e-27
1.82510905e-27
1.82510905e-27
-4.81086382e-18
4.82916900e-18
-1.98775218e-15
-6.73677263e-14
-4.70585374e-03
-4.63582583e-03
5.62126931e-05
-3.97890381e-03
-3.49811033e-14
-3.50980863e-03
3.76204858e-14
1.86133735e-03
-3.05866685e-03
4.84316871e-04
-9.82558628e-14
-9.15279245e-14
2.17004337e-03
1.28565374e-13
1.46555527e-13
2.94917278e-14
1.82510905e-27
1.82510905e-27
1.82510905e-27
1.82510905e-27
1.82510905e-27
1.82510905e-27
2.89768392e-17
2.61198899e-17
-1.98797071e-15
-6.43509293e-14
2.69747898e-14
3.56384381e-14
2.50697156e-14
-4.70585374e-03
-4.68952199e-03
-2.11350612e-03
-8.02982632e-14
-3.11178098e-03
5.14139714e-04
-4.70585374e-03
7.38793235e-13
2.07284638e-04
-1.29972638e-13
-8.71054012e-04
3.17802040e-03
-7.59737156e-04
3.81445142e-14
-4.46419041e-14
-3.17123536e-15
1.82510905e-27
1.82510905e-27
1.82510905e-27
1.82510905e-27
1.82510905e-27
1.10980936e-16
1.40291655e-16
-3.27024177e-14
-3.34985435e-03
-1.44951666e-14
2.94054074e-15
-1.88885506e-03
-1.80178157e-13
-2.15849958e-03
-2.61043900e-04
-3.02290979e-15
-4.70585374e-03
2.32286202e-03
-5.80963488e-13
-3.07301573e-04
-4.70585374e-03
-1.23518935e-14
-1.27262404e-14
5.09747602e-04
2.57130907e-03
-3.44199789e-14
-6.56700264e-14
1.82510905e-27
1.82510905e-27
1.82510905e-27
1.82510905e-27
1.82510905e-27
1.82510905e-27
9.16230167e-17
1.54526551e-16
-2.52207371e-14
-8.08871545e-14
-4.70585374e-03
-1.92565574e-04
-4.70585374e-03
-2.22299627e-03
-1.16074996e-03
-4.70585374e-03
-6.38358386e-04
-1.52325915e-13
2.47187260e-04
-1.65886479e-13
-3.18511715e-03
2.02032734e-14
-7.70715604e-14
-1.34983795e-03
9.03315994e-14
2.55799067e-04
-2.80943913e-03
-1.17914633e-14
1.82510905e-27
1.82510905e-27
1.82510905e-27
1.82510905e-27
-3.08384753e-14
-2.11769682e-14
-1.99779012e-16
8.79623846e-17
-1.65524436e-14
-4.43132793e-12
-2.31383035e-14
3.29751483e-14
-4.70585374e-03
1.79205003e-03
4.70585374e-03
-4.95475053e-04
-4.70585374e-03
4.70585374e-03
-4.70585374e-03
1.96829976e-03
1.39919837e-03
-2.36411268e-03
-1.85725235e-03
-9.16007746e-14
-3.19052312e-03
-4.70585374e-03
-1.86354452e-14
-3.21327768e-15
-2.14061178e-15
-2.85906342e-14
-5.19553768e-14
-7.30678124e-14
-4.77597106e-14
-2.97144710e-15
-2.66836101e-15
-1.43764044e-14
-1.89972044e-14
-3.93242444e-14
-5.72591768e-14
-4.44677622e-03
-4.70585374e-03
-3.93471905e-12
4.45945192e-14
-8.44668541e-04
4.70585374e-03
-5.32111855e-04
-1.80721845e-03
-1.11928114e-13
-3.11702832e-04
-3.47225434e-14
-1.44951686e-03
-1.16440041e-13
-1.06384716e-13
-1.55197303e-13
-3.56467371e-14
-9.76828775e-14
-1.03038766e-13
-8.52608686e-14
-4.50457357e-14
-1.69808429e-14
-1.70971208e-15
1.91759474e-16
-4.30751288e-14
-1.00862195e-13
-1.11859920e-14
1.40512965e-14
-1.51247722e-14
-2.50901187e-14
-4.70585374e-03
-4.70585374e-03
-3.23601973e-03
-4.52014075e-05
-3.42319883e-13
-1.43013126e-13
-1.89893510e-03
-6.61503934e-04
-1.12396689e-03
-3.58281612e-13
-9.81149702e-14
4.73982302e-13
-8.83052623e-15
-4.70585374e-03
-6.68759742e-05
-1.31665555e-13
-3.39857474e-14
-4.28322566e-15
-2.34596091e-15
-4.70773582e-15
1.82510905e-27
5.45074080e-17
-4.59951913e-14
-8.20046828e-14
5.73914318e-15
-5.56767904e-14
-1.62138375e-13
-1.51868569e-13
-1.70535200e-03
1.64386814e-03
-1.64624378e-03
-1.20626512e-03
-2.11260415e-13
-1.03559640e-14
4.60442667e-03
3.69441414e-14
2.91386363e-13
-3.12231093e-03
-1.57033480e-13
-1.09180633e-14
-4.44492670e-14
-4.70585374e-03
-4.70585373e-03
-1.15792881e-13
-7.57671752e-14
-7.68009903e-14
-4.79506553e-14
-1.85943236e-14
1.82510905e-27
2.98619840e-18
-3.81533648e-14
-4.21032650e-15
8.46011292e-14
-6.65340149e-14
-1.04382286e-13
-1.61716036e-03
-3.78971504e-14
4.70585374e-03
-4.70585374e-03
2.21998817e-03
1.88916342e-03
2.39868688e-03
4.70585374e-03
4.88131679e-14
7.43284019e-13
3.70914913e-13
-4.70585374e-03
-8.64206795e-14
-6.61013935e-15
-1.33247459e-04
-1.68544361e-13
-6.93528681e-14
-1.04136079e-13
8.09993129e-18
1.82510905e-27
1.82510905e-27
1.82510905e-27
1.82510905e-27
1.29385143e-15
3.68814260e-13
-4.86971224e-14
-4.89687974e-14
-5.20861672e-14
-2.56938073e-03
7.53205655e-14
-4.31232227e-14
-9.24674508e-14
-5.80375444e-14
-8.20940032e-14
-6.89483855e-14
3.28964900e-03
-1.39899226e-04
2.23658657e-03
1.87485339e-03
-4.70585374e-03
-3.38343883e-14
-7.56533774e-15
-3.45529111e-03
-2.12679442e-12
-3.29830916e-13
-6.44825735e-14
2.73242342e-17
1.82510905e-27
1.82510905e-27
1.82510905e-27
1.82510905e-27
3.55122695e-14
3.94837466e-19
-1.99042998e-14
-5.00071586e-14
-7.26515925e-14
-4.71060409e-14
8.53025276e-04
2.72188267e-12
-2.18821681e-03
-6.11280947e-04
7.71366437e-13
-4.51317443e-04
1.22543026e-03
-1.48154562e-03
3.54729471e-03
-4.70585374e-03
-4.66012118e-03
-3.22404230e-14
-6.90780198e-15
-1.50847124e-13
-5.21300986e-14
-2.82234195e-14
-2.10310768e-15
3.35553220e-18
1.82510905e-27
1.82510905e-27
1.82510905e-27
1.82510905e-27
2.12472039e-14
1.82510905e-27
-5.08171495e-15
-1.58441206e-14
-2.74427585e-14
-2.10529711e-14
-9.21677946e-13
4.58471593e-14
5.61428589e-14
1.64207667e-13
-6.45410070e-04
-4.68263946e-04
1.66571214e-12
-1.27498488e-15
-3.12801841e-03
4.25472691e-03
5.38290605e-14
1.46458784e-03
-7.45718931e-15
2.70813754e-14
3.33388070e-14
9.90751410e-15
9.85807492e-15
1.82510905e-27
1.82510905e-27
1.82510905e-27
1.82510905e-27
1.82510905e-27
1.82510905e-27
1.82510905e-27
-4.11807113e-15
-1.08356695e-14
-1.46005393e-14
-2.52693656e-15
-2.36655146e-14
-4.62002050e-14
4.73032118e-14
-1.36844914e-03
-2.71501120e-03
-4.70585374e-03
1.12242709e-12
-2.13739664e-03
1.61292669e-14
-4.70585374e-03
8.49636366e-14
4.70585374e-03
9.66269976e-14
1.82786865e-13
1.80085110e-14
-2.85558729e-14
-1.43953531e-13
-4.85270072e-14
-3.25373989e-14
1.82510905e-27
-2.39520217e-14
1.82510905e-27
1.82510905e-27
1.82510905e-27
-2.20337309e-15
-3.35399589e-15
5.29407118e-15
2.30352828e-14
1.01157666e-13
4.70585374e-03
1.27324091e-03
-1.38801179e-15
-1.56867538e-03
2.71091568e-03
1.82253152e-13
1.56210116e-12
4.56626107e-03
-6.31589644e-04
9.33696796e-14
9.43656741e-14
3.76223626e-03
2.23553261e-05
9.19086951e-14
2.53210337e-14
-7.88161541e-15
4.82961405e-15
-2.11736230e-14
1.82510905e-27
1.82510905e-27
3.19989828e-18
1.82510905e-27
1.82510905e-27
1.82510905e-27
6.59878116e-15
8.07375496e-14
1.11382464e-13
4.70585374e-03
4.70585374e-03
-5.91644288e-14
-1.00176328e-13
1.73899503e-03
-7.29002977e-14
7.23693863e-04
1.59038385e-03
6.96763827e-14
4.74929943e-14
5.02873240e-14
6.77553302e-14
7.52281190e-14
4.62612642e-14
2.57498201e-15
4.51050723e-14
5.32224008e-14
3.47322521e-14
1.82510905e-27
1.82510905e-27
1.82510905e-27
6.13095531e-19
1.82510905e-27
1.82510905e-27
-3.60887342e-17
2.53192005e-14
1.47683021e-03
-6.09719741e-15
6.51581733e-14
5.57606997e-14
3.09261295e-03
4.70585374e-03
1.68725078e-04
-6.44539769e-14
1.76491223e-13
2.38779231e-03
1.02577591e-13
4.70585374e-03
8.32119746e-14
-3.40063125e-15
-1.89417128e-14
-2.54675339e-14
5.78977908e-14
1.57383775e-13
2.17584384e-14
1.82510905e-27
1.82510905e-27
1.82510905e-27
1.82510905e-27
1.82510905e-27
1.82510905e-27
1.82510905e-27
2.64698034e-14
5.60521888e-14
6.08081583e-14
4.53542777e-03
2.22300608e-03
5.29470522e-04
-4.70585374e-03
1.74666483e-03
-2.95504044e-15
3.36224230e-03
8.26824769e-15
3.24246427e-03
4.70585374e-03
-1.74345032e-14
1.34375171e-14
3.73467564e-04
3.43457163e-03
4.70585374e-03
2.41601564e-14
8.11041556e-15
1.82510905e-27
1.82510905e-27
1.82510905e-27
1.82510905e-27
1.82510905e-27
1.82510905e-27
1.82510905e-27
1.82510905e-27
6.62857294e-14
2.99804051e-14
-3.99940369e-16
-4.41496442e-03
-3.66555046e-14
4.70585374e-03
-1.08185683e-13
-6.43272254e-14
2.05709454e-03
1.52642829e-03
1.05212730e-03
-4.70585374e-03
-4.46042786e-14
4.36598669e-03
1.85671127e-03
4.70585374e-03
1.28009628e-13
1.66002743e-14
1.91234715e-15
1.82510905e-27
1.82510905e-27
1.82510905e-27
1.82510905e-27
1.82510905e-27
1.82510905e-27
1.82510905e-27
1.82510905e-27
-1.35429861e-20
-7.33323724e-15
-2.30035469e-14
1.26454644e-14
6.16174679e-14
2.25069166e-03
-2.80641257e-03
3.99736956e-03
-1.03935801e-13
9.14521703e-04
3.52375132e-13
-1.48149749e-03
3.57754187e-03
1.42972874e-03
1.77119327e-13
7.00564960e-04
3.15104664e-14
-3.08639057e-14
-4.23889433e-15
1.82510905e-27
1.82510905e-27
1.82510905e-27
1.82510905e-27
1.82510905e-27
1.82510905e-27
1.82510905e-27
1.82510905e-27
1.82510905e-27
-7.57195145e-19
-4.92415217e-14
-7.36411358e-14
-2.81796459e-14
-2.43811447e-13
-1.47345914e-13
3.64843126e-03
1.14829357e-03
3.04214470e-04
1.45689288e-13
-2.38553861e-13
-2.73585305e-13
2.60891597e-14
-1.12861705e-03
5.50275803e-14
5.19564816e-14
4.88078846e-14
5.56793771e-15
3.53093771e-14
1.82510905e-27
1.82510905e-27
1.82510905e-27
1.82510905e-27
1.82510905e-27
1.82510905e-27
1.82510905e-27
1.82510905e-27
1.82510905e-27
3.53576542e-18
-4.94708281e-14
-5.50172619e-14
-5.87488368e-14
-1.50136586e-14
-1.25604968e-13
-2.96097121e-03
-4.70585374e-03
-4.21622082e-03
-1.20967163e-13
6.33345768e-15
5.06787044e-04
-3.34182328e-12
-4.70585374e-03
-4.70585374e-03
-5.72491133e-15
1.30759805e-16
-4.12903995e-20
1.82510905e-27
1.82510905e-27
1.82510905e-27
1.82510905e-27
1.82510905e-27
1.82510905e-27
1.82510905e-27
1.82510905e-27
1.82510905e-27
1.82510905e-27
1.82510905e-27
1.82510905e-27
1.82510905e-27
-1.30152901e-15
-2.64118240e-14
-3.11807904e-15
8.43693004e-16
1.33557176e-13
2.42078761e-14
-4.70585374e-03
-4.70585374e-03
-1.28311027e-03
-1.54309180e-03
-1.82116989e-14
-1.23616799e-14
-3.50409250e-18
-1.61113495e-18
-1.51399615e-19
1.82510905e-27
1.82510905e-27
1.82510905e-27
1.82510905e-27
1.82510905e-27
1.82510905e-27
1.82510905e-27
1.82510905e-27
1.82510905e-27
1.82510905e-27
1.82510905e-27
1.82510905e-27
1.82510905e-27
1.82510905e-27
1.82510905e-27
1.82510905e-27
1.82510905e-27
-1.08469744e-17
-9.26875078e-18
1.82510905e-27
1.82510905e-27
1.82510905e-27
-3.87229659e-15
-1.65485178e-14
-2.18953011e-15
1.82510905e-27
1.82510905e-27
1.82510905e-27
1.82510905e-27
1.82510905e-27
1.82510905e-27
1.82510905e-27
1.82510905e-27
1.82510905e-27
1.82510905e-27